{
  "active_model": {
    "bias": -1.2798685449767002,
    "weights": [
      0.0,
      0.018280641201208262,
      -0.000269276346860905,
      -0.00011958000448130913,
      0.02738312880767677,
      -0.00604552187277843,
      -0.044982772099522055,
      0.00040004987726549303,
      0.0,
      0.003145008948899614,
      0.006329731357405087,
      -0.007496425787679926,
      -0.0029946993361097203,
      0.03245252018877411,
      0.0030037892139585724,
      0.0,
      0.0260069809812181,
      -0.0005451832148615039,
      -0.0028505052335039546,
      -0.008398129611654193,
      0.02738535327739734,
      0.002530913018694897,
      0.0,
      -0.00011958000448130913,
      -0.00604552187277843,
      0.0028505052335044646,
      0.015063698272855622,
      0.00227887894031658,
      -0.00912195275979668,
      0.004753052914102672,
      0.01102213620630838,
      0.0013026797114263854,
      0.022716620095821448,
      -0.003905911727641328,
      -0.000789098614611303,
      0.005573391358347371,
      0.0,
      0.00036857239484873455,
      0.02902752367689156,
      0.011917918842999439,
      0.0020522302871311114
    ]
  },
  "active_type_model": {
    "bias": [
      1.7137212350904567,
      -1.1105418299959209,
      -0.6031794050945414
    ],
    "weights": [
      [
        0.0,
        0.0,
        0.0
      ],
      [
        9.338728667460503e-06,
        -8.269193297652154e-06,
        -1.0695353698128005e-06
      ],
      [
        -0.0820735137906531,
        0.10096736616919809,
        -0.018893852378544625
      ],
      [
        -0.0010830018276516038,
        0.0007151119040791928,
        0.00036788992357240853
      ],
      [
        0.009960654638329411,
        -0.011921027294888729,
        0.0019603726565594133
      ],
      [
        -3.112056685062505e-06,
        2.75564257175339e-06,
        3.5641411331822535e-07
      ],
      [
        -0.009000929063273757,
        0.008457626731767741,
        0.0005433023315060057
      ],
      [
        0.026920600263121548,
        -0.043532512211080863,
        0.01661191194795928
      ],
      [
        0.0,
        0.0,
        0.0
      ],
      [
        0.005162507099516429,
        -0.012870326638801886,
        0.007707819539285494
      ],
      [
        0.019143689845325804,
        -0.02701114123541845,
        0.00786745139009297
      ],
      [
        0.0055414071415431105,
        -0.008189388834369874,
        0.002647981692826769
      ],
      [
        -0.023224501863002348,
        0.03817873653864928,
        -0.014954234675646926
      ],
      [
        0.005157786482205121,
        -0.00375631699736909,
        -0.0014014694848360383
      ],
      [
        0.00700396360653983,
        -0.01326193113794743,
        0.0062579675314075895
      ],
      [
        0.0,
        0.0,
        0.0
      ],
      [
        0.013081077256721321,
        -0.018967465173387647,
        0.00588638791666617
      ],
      [
        -0.003937232863360093,
        0.009341312681089311,
        -0.005404079817729157
      ],
      [
        0.02372554009791463,
        -0.03556608343987624,
        0.011840543341961739
      ],
      [
        -0.002768047579624556,
        0.0038552034870087816,
        -0.0010871559073842192
      ],
      [
        0.012140729649366884,
        -0.01452750186808168,
        0.0023867722187149555
      ],
      [
        -0.010068118272546174,
        0.012036205279845016,
        -0.001968087007298591
      ],
      [
        0.0,
        0.0,
        0.0
      ],
      [
        -0.0010830018276516038,
        0.0007151119040791928,
        0.00036788992357240853
      ],
      [
        -3.112056685062505e-06,
        2.75564257175339e-06,
        3.5641411331822535e-07
      ],
      [
        -0.02372554009791718,
        0.03556608343988008,
        -0.011840543341963095
      ],
      [
        0.012928117310436435,
        -0.019785932324575446,
        0.006857815014138938
      ],
      [
        -0.003253040630190563,
        0.00809837108340357,
        -0.004845330453213005
      ],
      [
        0.004430752600569534,
        -0.013568032376644737,
        0.009137279776075261
      ],
      [
        0.015448043452335483,
        -0.022998276237067912,
        0.007550232784732468
      ],
      [
        -0.07669466584672653,
        0.0981242445943196,
        -0.02142957874759351
      ],
      [
        -0.013084871941534723,
        0.020281523962096995,
        -0.007196652020562317
      ],
      [
        0.009470715423025642,
        -0.012291764118739555,
        0.0028210486957139743
      ],
      [
        0.006136530556762454,
        -0.014073338798205279,
        0.00793680824144267
      ],
      [
        0.004125607792319336,
        -0.006671966411174365,
        0.0025463586188550357
      ],
      [
        0.002971981258980773,
        -0.005380632518846191,
        0.0024086512598654203
      ],
      [
        0.0,
        0.0,
        0.0
      ],
      [
        -0.08366075487971655,
        0.10249838862514037,
        -0.018837633745423663
      ],
      [
        0.012355148727484784,
        -0.01791364629276803,
        0.005558497565283197
      ],
      [
        0.016256716104507633,
        -0.022935971265889622,
        0.006679255161382015
      ],
      [
        0.010693589851642957,
        -0.02110759673047559,
        0.01041400687883251
      ]
    ]
  },
  "feature_mean": [
    1.0,
    0.85128125,
    0.15028125,
    0.2135859375,
    0.0286015625,
    0.01903125,
    0.04605380859374894,
    0.04962841796872562,
    1.0,
    0.028117513020840687,
    0.20905891927083034,
    0.01901334635416695,
    0.13179264322918527,
    0.472546875,
    0.280234375,
    0.0,
    0.31321599534436206,
    0.022265921277900093,
    0.1543749999999946,
    0.73878125,
    0.027546875,
    0.0010546875,
    0.0,
    0.2135859375,
    0.01903125,
    0.845625000000064,
    0.14877662386417773,
    0.011290793630575988,
    0.001304728190103549,
    0.05422304958763194,
    0.0327840839665875,
    0.009169147171497785,
    0.22121141117239487,
    0.015118326822920943,
    0.049350260416666396,
    0.0712636960021011,
    0.0,
    0.13947714843750916,
    0.2900102288888962,
    0.19114485677083304,
    0.006281405978732854
  ],
  "feature_names": [
    "bias",
    "buildable",
    "coastal",
    "initial_forest",
    "initial_settlement_like",
    "initial_mountain",
    "dist_to_settlement",
    "dist_to_coast",
    "dist_to_ruin",
    "settlement_density",
    "forest_density",
    "mountain_density",
    "coastal_density",
    "frontier",
    "conflict",
    "reclaimable",
    "settlement_intensity",
    "port_intensity",
    "border_distance",
    "initial_class_empty",
    "initial_class_settlement",
    "initial_class_port",
    "initial_class_ruin",
    "initial_class_forest",
    "initial_class_mountain",
    "border_support",
    "settlement_intensity_sq",
    "port_intensity_sq",
    "settlement_density_sq",
    "forest_density_sq",
    "coastal_x_settlement_intensity",
    "coastal_x_port_intensity",
    "frontier_x_settlement_intensity",
    "conflict_x_settlement_density",
    "initial_forest_x_forest_density",
    "initial_forest_x_settlement_intensity",
    "reclaimable_x_settlement_intensity",
    "coastal_x_border_support",
    "buildable_x_settlement_intensity",
    "buildable_x_forest_density",
    "settlement_x_forest_density"
  ],
  "feature_scale": [
    1e-06,
    0.3558110220310156,
    0.3573468845514291,
    0.40983775424234864,
    0.1666838718127958,
    0.13663477421019077,
    0.028557996519068114,
    0.04764420814087671,
    1e-06,
    0.02267451546621774,
    0.10255446290136007,
    0.05425795928392482,
    0.15465212444154142,
    0.49924575704524515,
    0.44911364938969556,
    1e-06,
    0.22510522900328556,
    0.10389909710980272,
    0.11777726595146172,
    0.43929888987824606,
    0.16367053698748424,
    0.03245882213323079,
    1e-06,
    0.40983775424234864,
    0.13663477421019077,
    0.11777726595144826,
    0.17886184111894946,
    0.0739082291923499,
    0.0017318534552513065,
    0.04936168769469612,
    0.10686618873332328,
    0.07253230231009507,
    0.2622860649087591,
    0.025631588360775802,
    0.10615046367033117,
    0.16999647841167803,
    1e-06,
    0.33292846727442627,
    0.2383732841113948,
    0.1207913745469543,
    0.0063379690425938865
  ],
  "forest_model": {
    "bias": -1.2214012381789223,
    "weights": [
      0.0,
      0.01420526776859089,
      0.0034279316466838527,
      0.22671106005505556,
      0.022487427888005715,
      1.782332114213534e-06,
      -0.005329148797715586,
      0.0007058807890305601,
      0.0,
      -0.003426971413914176,
      -0.0014800133003561766,
      0.002942900846984107,
      -0.0024401186266635156,
      -0.004079060527485414,
      -0.00536195431970622,
      0.0,
      0.00024679059847709556,
      -0.0009496155261425242,
      0.0023445065276982025,
      -0.2200399068107975,
      0.02200717791167641,
      0.004509249303622263,
      0.0,
      0.22671106005505556,
      1.782332114213534e-06,
      -0.0023445065276984562,
      -0.0010109505668729028,
      -0.0002358896990227058,
      -0.004167894457878156,
      -0.0012848239488131988,
      0.0019757284160148354,
      0.0013735465010414527,
      -0.007521229991625265,
      -0.005975898555113949,
      0.18494344948070227,
      0.16014562883017822,
      0.0,
      0.0034937201458669236,
      0.0029910039280677775,
      0.0032942243583319215,
      -0.005825744367705625
    ]
  },
  "metadata": {
    "holdout_round_number": null,
    "l2_active": 0.6,
    "l2_active_type": 0.8,
    "l2_forest": 0.6,
    "num_rounds": 16,
    "num_seeds": 80,
    "rounds": [
      {
        "round_id": "71451d74-be9f-471f-aacd-a41f3b68a9cd",
        "round_number": 1
      },
      {
        "round_id": "76909e29-f664-4b2f-b16b-61b7507277e9",
        "round_number": 2
      },
      {
        "round_id": "f1dac9a9-5cf1-49a9-8f17-d6cb5d5ba5cb",
        "round_number": 3
      },
      {
        "round_id": "8e839974-b13b-407b-a5e7-fc749d877195",
        "round_number": 4
      },
      {
        "round_id": "fd3c92ff-3178-4dc9-8d9b-acf389b3982b",
        "round_number": 5
      },
      {
        "round_id": "ae78003a-4efe-425a-881a-d16a39bca0ad",
        "round_number": 6
      },
      {
        "round_id": "36e581f1-73f8-453f-ab98-cbe3052b701b",
        "round_number": 7
      },
      {
        "round_id": "c5cdf100-a876-4fb7-b5d8-757162c97989",
        "round_number": 8
      },
      {
        "round_id": "2a341ace-0f57-4309-9b89-e59fe0f09179",
        "round_number": 9
      },
      {
        "round_id": "75e625c3-60cb-4392-af3e-c86a98bde8c2",
        "round_number": 10
      },
      {
        "round_id": "324fde07-1670-4202-b199-7aa92ecb40ee",
        "round_number": 11
      },
      {
        "round_id": "795bfb1f-54bd-4f39-a526-9868b36f7ebd",
        "round_number": 12
      },
      {
        "round_id": "7b4bda99-6165-4221-97cc-27880f5e6d95",
        "round_number": 13
      },
      {
        "round_id": "d0a2c894-2162-4d49-86cf-435b9013f3b8",
        "round_number": 14
      },
      {
        "round_id": "cc5442dd-bc5d-418b-911b-7eb960cb0390",
        "round_number": 15
      },
      {
        "round_id": "8f664aed-8839-4c85-bed0-77a2cac7c6f5",
        "round_number": 16
      }
    ],
    "version": 1
  }
}